Language model created by QuickLM on Sun May 22 14:33:08 EDT 2016
Copyright (c) 1996-2010 Carnegie Mellon University and Alexander I. Rudnicky

The model is in standard ARPA format, designed by Doug Paul while he was at MITRE.

The code that was used to produce this language model is available in Open Source.
Please visit http://www.speech.cs.cmu.edu/tools/ for more information

The (fixed) discount mass is 0.5. The backoffs are computed using the ratio method.
This model based on a corpus of 5 sentences and 16 words

\data\
ngram 1=16
ngram 2=20
ngram 3=15

\1-grams:
-1.0000 </s> -0.3010
-1.0000 <s> -0.2553
-1.6990 ADRIANO -0.2833
-1.6990 AUDELIANO -0.2923
-1.6990 BONIN -0.2553
-1.6990 CHRISTIANO -0.2833
-1.3979 HENRIQUE -0.2833
-1.6990 HÉVERTON -0.2923
-1.6990 LEITE -0.2553
-1.6990 LI -0.2553
-1.6990 LUÍS -0.2923
-1.6990 PESSIQUELI -0.2923
-1.6990 REZENDE -0.2553
-1.6990 ROSSETTE -0.2923
-1.6990 SOARES -0.2553
-1.6990 VICTOR -0.2923

\2-grams:
-1.0000 <s> ADRIANO 0.0000
-1.0000 <s> AUDELIANO 0.0000
-1.0000 <s> CHRISTIANO 0.0000
-1.0000 <s> HÉVERTON 0.0000
-1.0000 <s> LUÍS 0.0000
-0.3010 ADRIANO HENRIQUE -0.1761
-0.3010 AUDELIANO LI 0.0000
-0.3010 BONIN </s> -0.3010
-0.3010 CHRISTIANO HENRIQUE -0.1761
-0.6021 HENRIQUE REZENDE 0.0000
-0.6021 HENRIQUE ROSSETTE 0.0000
-0.3010 HÉVERTON SOARES 0.0000
-0.3010 LEITE </s> -0.3010
-0.3010 LI </s> -0.3010
-0.3010 LUÍS VICTOR 0.0000
-0.3010 PESSIQUELI BONIN 0.0000
-0.3010 REZENDE </s> -0.3010
-0.3010 ROSSETTE LEITE 0.0000
-0.3010 SOARES </s> -0.3010
-0.3010 VICTOR PESSIQUELI 0.0000

\3-grams:
-0.3010 <s> ADRIANO HENRIQUE
-0.3010 <s> AUDELIANO LI
-0.3010 <s> CHRISTIANO HENRIQUE
-0.3010 <s> HÉVERTON SOARES
-0.3010 <s> LUÍS VICTOR
-0.3010 ADRIANO HENRIQUE ROSSETTE
-0.3010 AUDELIANO LI </s>
-0.3010 CHRISTIANO HENRIQUE REZENDE
-0.3010 HENRIQUE REZENDE </s>
-0.3010 HENRIQUE ROSSETTE LEITE
-0.3010 HÉVERTON SOARES </s>
-0.3010 LUÍS VICTOR PESSIQUELI
-0.3010 PESSIQUELI BONIN </s>
-0.3010 ROSSETTE LEITE </s>
-0.3010 VICTOR PESSIQUELI BONIN

\end\
