Language model created by QuickLM on Sun May 22 14:33:39 EDT 2016
Copyright (c) 1996-2010 Carnegie Mellon University and Alexander I. Rudnicky

The model is in standard ARPA format, designed by Doug Paul while he was at MITRE.

The code that was used to produce this language model is available in Open Source.
Please visit http://www.speech.cs.cmu.edu/tools/ for more information

The (fixed) discount mass is 0.5. The backoffs are computed using the ratio method.
This model based on a corpus of 5 sentences and 7 words

\data\
ngram 1=7
ngram 2=10
ngram 3=5

\1-grams:
-0.7782 </s> -0.3010
-0.7782 <s> -0.2218
-1.4771 COFFEE -0.2218
-1.4771 DOCUMENT -0.2218
-1.4771 GALLON -0.2218
-1.4771 MEAL -0.2218
-1.4771 WATER -0.2218

\2-grams:
-1.0000 <s> COFFEE 0.0000
-1.0000 <s> DOCUMENT 0.0000
-1.0000 <s> GALLON 0.0000
-1.0000 <s> MEAL 0.0000
-1.0000 <s> WATER 0.0000
-0.3010 COFFEE </s> -0.3010
-0.3010 DOCUMENT </s> -0.3010
-0.3010 GALLON </s> -0.3010
-0.3010 MEAL </s> -0.3010
-0.3010 WATER </s> -0.3010

\3-grams:
-0.3010 <s> COFFEE </s>
-0.3010 <s> DOCUMENT </s>
-0.3010 <s> GALLON </s>
-0.3010 <s> MEAL </s>
-0.3010 <s> WATER </s>

\end\
