Language model created by QuickLM on Sun May 22 14:33:27 EDT 2016
Copyright (c) 1996-2010 Carnegie Mellon University and Alexander I. Rudnicky

The model is in standard ARPA format, designed by Doug Paul while he was at MITRE.

The code that was used to produce this language model is available in Open Source.
Please visit http://www.speech.cs.cmu.edu/tools/ for more information

The (fixed) discount mass is 0.5. The backoffs are computed using the ratio method.
This model based on a corpus of 5 sentences and 7 words

\data\
ngram 1=7
ngram 2=10
ngram 3=5

\1-grams:
-0.7782 </s> -0.3010
-0.7782 <s> -0.2218
-1.4771 ADRIANO -0.2218
-1.4771 AUDELIANO -0.2218
-1.4771 CHRISTIANO -0.2218
-1.4771 HÉVERTON -0.2218
-1.4771 LUÍS -0.2218

\2-grams:
-1.0000 <s> ADRIANO 0.0000
-1.0000 <s> AUDELIANO 0.0000
-1.0000 <s> CHRISTIANO 0.0000
-1.0000 <s> HÉVERTON 0.0000
-1.0000 <s> LUÍS 0.0000
-0.3010 ADRIANO </s> -0.3010
-0.3010 AUDELIANO </s> -0.3010
-0.3010 CHRISTIANO </s> -0.3010
-0.3010 HÉVERTON </s> -0.3010
-0.3010 LUÍS </s> -0.3010

\3-grams:
-0.3010 <s> ADRIANO </s>
-0.3010 <s> AUDELIANO </s>
-0.3010 <s> CHRISTIANO </s>
-0.3010 <s> HÉVERTON </s>
-0.3010 <s> LUÍS </s>

\end\
