Language model created by QuickLM on Sun May 22 14:34:02 EDT 2016
Copyright (c) 1996-2010 Carnegie Mellon University and Alexander I. Rudnicky

The model is in standard ARPA format, designed by Doug Paul while he was at MITRE.

The code that was used to produce this language model is available in Open Source.
Please visit http://www.speech.cs.cmu.edu/tools/ for more information

The (fixed) discount mass is 0.5. The backoffs are computed using the ratio method.
This model based on a corpus of 4 sentences and 6 words

\data\
ngram 1=6
ngram 2=8
ngram 3=4

\1-grams:
-0.7782 </s> -0.3010
-0.7782 <s> -0.2218
-1.3802 CRITICAL -0.2218
-1.3802 IMPORTANT -0.2218
-1.3802 LOW -0.2218
-1.3802 NORMAL -0.2218

\2-grams:
-0.9031 <s> CRITICAL 0.0000
-0.9031 <s> IMPORTANT 0.0000
-0.9031 <s> LOW 0.0000
-0.9031 <s> NORMAL 0.0000
-0.3010 CRITICAL </s> -0.3010
-0.3010 IMPORTANT </s> -0.3010
-0.3010 LOW </s> -0.3010
-0.3010 NORMAL </s> -0.3010

\3-grams:
-0.3010 <s> CRITICAL </s>
-0.3010 <s> IMPORTANT </s>
-0.3010 <s> LOW </s>
-0.3010 <s> NORMAL </s>

\end\
